{"learner":{"attributes":{"scikit_learn":"{\"_estimator_type\": \"classifier\"}"},"feature_names":["x0","y0","x1","y1","x2","y2","x3","y3","x4","y4","x5","y5","x6","y6","x7","y7","x8","y8","x9","y9","x10","y10","x11","y11","x12","y12","x13","y13","x14","y14","x15","y15","x16","y16"],"feature_types":["float","float","float","float","float","float","float","float","float","float","float","float","float","float","float","float","float","float","float","float","float","float","float","float","float","float","float","float","float","float","float","float","float","float"],"gradient_booster":{"model":{"gbtree_model_param":{"num_parallel_tree":"1","num_trees":"50"},"iteration_indptr":[0,1,2,3,4,5,6,7,8,9,10,11,12,13,14,15,16,17,18,19,20,21,22,23,24,25,26,27,28,29,30,31,32,33,34,35,36,37,38,39,40,41,42,43,44,45,46,47,48,49,50],"tree_info":[0,0,0,0,0,0,0,0,0,0,0,0,0,0,0,0,0,0,0,0,0,0,0,0,0,0,0,0,0,0,0,0,0,0,0,0,0,0,0,0,0,0,0,0,0,0,0,0,0,0],"trees":[{"base_weights":[1.2102815E-7,-4.8965913E-1,2.8202481E0,3.0443707E0,-9.480438E-1,4.0886417E-1,4.5778525E-1,4.0070182E-1,-8.0361016E-2,-1.9021844E-2,-1.19635455E-1,-4.050267E-2,2.3275805E-1],"categories":[],"categories_nodes":[],"categories_segments":[],"categories_sizes":[],"default_left":[0,0,0,0,0,0,0,0,0,0,0,0,0],"id":0,"left_children":[1,3,5,7,9,-1,11,-1,-1,-1,-1,-1,-1],"loss_changes":[1.2822025E2,1.3104462E2,3.9287994E1,3.7746323E1,1.3093819E1,0E0,1.0500627E1,0E0,0E0,0E0,0E0,0E0,0E0],"parents":[2147483647,0,0,1,1,2,2,3,3,4,4,6,6],"right_children":[2,4,6,8,10,-1,12,-1,-1,-1,-1,-1,-1],"split_conditions":[7.199403E-1,6.7530864E-1,5.9424084E-1,6.220526E-1,6.102221E-1,4.0886417E-1,5.934129E-1,4.0070182E-1,-8.0361016E-2,-1.9021844E-2,-1.19635455E-1,-4.050267E-2,2.3275805E-1],"split_indices":[16,27,11,12,19,0,9,0,0,0,0,0,0],"split_type":[0,0,0,0,0,0,0,0,0,0,0,0,0],"sum_hessian":[9.0848595E1,7.811281E1,1.2735785E1,8.320712E0,6.97921E1,7.811281E0,4.9245033E0,6.6226077E0,1.6981046E0,1.7660288E1,5.213181E1,3.9056406E0,1.0188627E0],"tree_param":{"num_deleted":"0","num_feature":"34","num_nodes":"13","size_leaf_vector":"1"}},{"base_weights":[-1.1869723E-3,-4.5848867E-1,2.2610261E0,2.390899E0,-9.058227E-1,3.0776235E-1,4.383635E-1,3.0425176E-1,-7.764306E-2,-7.5716614E-3,-1.1289E-1,-3.8009472E-2,2.066826E-1],"categories":[],"categories_nodes":[],"categories_segments":[],"categories_sizes":[],"default_left":[0,0,0,0,0,0,0,0,0,0,0,0,0],"id":1,"left_children":[1,3,5,7,9,-1,11,-1,-1,-1,-1,-1,-1],"loss_changes":[9.546631E1,1.0000813E2,2.1747154E1,2.4426487E1,1.2334572E1,0E0,8.739022E0,0E0,0E0,0E0,0E0,0E0,0E0],"parents":[2147483647,0,0,1,1,2,2,3,3,4,4,6,6],"right_children":[2,4,6,8,10,-1,12,-1,-1,-1,-1,-1,-1],"split_conditions":[7.199403E-1,6.7530864E-1,5.9424084E-1,6.220526E-1,6.029513E-1,3.0776235E-1,5.934129E-1,3.0425176E-1,-7.764306E-2,-7.5716614E-3,-1.1289E-1,-3.8009472E-2,2.066826E-1],"split_indices":[16,27,11,12,19,0,9,0,0,0,0,0,0],"split_type":[0,0,0,0,0,0,0,0,0,0,0,0,0],"sum_hessian":[9.027925E1,7.576154E1,1.4517712E1,9.690581E0,6.607096E1,9.550378E0,4.9673343E0,8.069781E0,1.6207999E0,1.4278352E1,5.179261E1,3.8160145E0,1.1513196E0],"tree_param":{"num_deleted":"0","num_feature":"34","num_nodes":"13","size_leaf_vector":"1"}},{"base_weights":[-5.1773165E-4,-4.3113708E-1,1.9181042E0,2.0034473E0,-8.660864E-1,2.526271E-1,4.1877812E-1,2.5056726E-1,-7.508391E-2,-1.5157021E-2,-1.12827934E-1,-3.5653453E-2,1.8560198E-1],"categories":[],"categories_nodes":[],"categories_segments":[],"categories_sizes":[],"default_left":[0,0,0,0,0,0,0,0,0,0,0,0,0],"id":2,"left_children":[1,3,5,7,9,-1,11,-1,-1,-1,-1,-1,-1],"loss_changes":[7.488562E1,8.012053E1,1.4091671E1,1.7819386E1,1.1725491E1,0E0,7.3399887E0,0E0,0E0,0E0,0E0,0E0,0E0],"parents":[2147483647,0,0,1,1,2,2,3,3,4,4,6,6],"right_children":[2,4,6,8,10,-1,12,-1,-1,-1,-1,-1,-1],"split_conditions":[7.199403E-1,6.7530864E-1,5.9424084E-1,6.220526E-1,6.102221E-1,2.526271E-1,5.934129E-1,2.5056726E-1,-7.508391E-2,-1.5157021E-2,-1.12827934E-1,-3.5653453E-2,1.8560198E-1],"split_indices":[16,27,11,12,19,0,9,0,0,0,0,0,0],"split_type":[0,0,0,0,0,0,0,0,0,0,0,0,0],"sum_hessian":[8.8638145E1,7.302383E1,1.5614325E1,1.0521976E1,6.2501846E1,1.062116E1,4.993165E0,8.975602E0,1.5463748E0,1.7201952E1,4.5299896E1,3.7319274E0,1.2612377E0],"tree_param":{"num_deleted":"0","num_feature":"34","num_nodes":"13","size_leaf_vector":"1"}},{"base_weights":[6.8718806E-4,-4.070209E-1,1.6835734E0,1.744769E0,-8.2856524E-1,2.1158462E0,1.606573E-1,2.1615067E-1,-7.266535E-2,-1.3846164E-2,-1.09857E-1,1.7143195E-2,2.2806887E-1,-8.948596E-2,1.6841115E-1],"categories":[],"categories_nodes":[],"categories_segments":[],"categories_sizes":[],"default_left":[0,0,0,0,0,0,0,0,0,0,0,0,0,0,0],"id":3,"left_children":[1,3,5,7,9,11,13,-1,-1,-1,-1,-1,-1,-1,-1],"loss_changes":[6.0586544E1,6.59232E1,1.0996696E1,1.3895134E1,1.1049507E1,3.8819542E0,9.369491E0,0E0,0E0,0E0,0E0,0E0,0E0,0E0,0E0],"parents":[2147483647,0,0,1,1,2,2,3,3,4,4,5,5,6,6],"right_children":[2,4,6,8,10,12,14,-1,-1,-1,-1,-1,-1,-1,-1],"split_conditions":[7.199403E-1,6.7530864E-1,7.3717344E-1,6.220526E-1,6.102221E-1,6.910517E-1,5.934129E-1,2.1615067E-1,-7.266535E-2,-1.3846164E-2,-1.09857E-1,1.7143195E-2,2.2806887E-1,-8.948596E-2,1.6841115E-1],"split_indices":[16,27,10,12,19,26,9,0,0,0,0,0,0,0,0],"split_type":[0,0,0,0,0,0,0,0,0,0,0,0,0,0,0],"sum_hessian":[8.6303604E1,7.008295E1,1.6220657E1,1.0966257E1,5.911669E1,1.2331171E1,3.8894858E0,9.491221E0,1.4750354E0,1.7050425E1,4.206627E1,1.1231327E0,1.1208038E1,2.5413423E0,1.3481436E0],"tree_param":{"num_deleted":"0","num_feature":"34","num_nodes":"15","size_leaf_vector":"1"}},{"base_weights":[1.7065E-3,-3.8532484E-1,1.5091032E0,1.558874E0,-7.927363E-1,1.8744161E0,1.606726E-1,1.921493E-1,-7.037236E-2,3.561137E-2,-9.4993584E-2,2.0261502E-1,1.1221662E-2,-8.657908E-2,1.5422927E-1],"categories":[],"categories_nodes":[],"categories_segments":[],"categories_sizes":[],"default_left":[0,0,0,0,0,0,0,0,0,0,0,0,0,0,0],"id":4,"left_children":[1,3,5,7,9,11,13,-1,-1,-1,-1,-1,-1,-1,-1],"loss_changes":[4.9889484E1,5.513484E1,8.304634E0,1.1301149E1,1.0618084E1,3.4230766E0,8.167846E0,0E0,0E0,0E0,0E0,0E0,0E0,0E0,0E0],"parents":[2147483647,0,0,1,1,2,2,3,3,4,4,5,5,6,6],"right_children":[2,4,6,8,10,12,14,-1,-1,-1,-1,-1,-1,-1,-1],"split_conditions":[7.199403E-1,6.7530864E-1,7.3717344E-1,6.220526E-1,5.547819E-1,7.151604E-1,5.934129E-1,1.921493E-1,-7.037236E-2,3.561137E-2,-9.4993584E-2,2.0261502E-1,1.1221662E-2,-8.657908E-2,1.5422927E-1],"split_indices":[16,27,10,12,19,27,9,0,0,0,0,0,0,0,0],"split_type":[0,0,0,0,0,0,0,0,0,0,0,0,0,0,0],"sum_hessian":[8.351692E1,6.704673E1,1.6470192E1,1.1126054E1,5.5920673E1,1.2652374E1,3.8178174E0,9.719155E0,1.4068983E0,6.578457E0,4.9342216E1,1.1511401E1,1.1409729E0,2.4046519E0,1.4131656E0],"tree_param":{"num_deleted":"0","num_feature":"34","num_nodes":"15","size_leaf_vector":"1"}},{"base_weights":[3.6409409E-3,-3.6454022E-1,1.375599E0,1.4182645E0,-7.570669E-1,1.546708E0,-6.393539E-2,1.7443503E-1,-6.8192475E-2,-8.855741E-3,-1.048634E-1,1.8409899E-1,2.9486671E-2],"categories":[],"categories_nodes":[],"categories_segments":[],"categories_sizes":[],"default_left":[0,0,0,0,0,0,0,0,0,0,0,0,0],"id":5,"left_children":[1,3,5,7,9,11,-1,-1,-1,-1,-1,-1,-1],"loss_changes":[4.16385E1,4.6559402E1,7.001934E0,9.460079E0,1.0417295E1,5.4869385E0,0E0,0E0,0E0,0E0,0E0,0E0,0E0],"parents":[2147483647,0,0,1,1,2,2,3,3,4,4,5,5],"right_children":[2,4,6,8,10,12,-1,-1,-1,-1,-1,-1,-1],"split_conditions":[7.199403E-1,6.7530864E-1,6.089235E-1,6.220526E-1,6.102221E-1,7.3717344E-1,-6.393539E-2,1.7443503E-1,-6.8192475E-2,-8.855741E-3,-1.048634E-1,1.8409899E-1,2.9486671E-2],"split_indices":[16,27,13,12,19,10,0,0,0,0,0,0,0],"split_type":[0,0,0,0,0,0,0,0,0,0,0,0,0],"sum_hessian":[8.043865E1,6.3998257E1,1.6440397E1,1.1076605E1,5.2921654E1,1.5367759E1,1.0726383E0,9.734595E0,1.3420098E0,1.6467781E1,3.645387E1,1.2061682E1,3.3060772E0],"tree_param":{"num_deleted":"0","num_feature":"34","num_nodes":"13","size_leaf_vector":"1"}},{"base_weights":[3.6078969E-3,-3.4626845E-1,1.2579764E0,1.3077514E0,-7.2368634E-1,1.4150566E0,-6.1956055E-2,1.6081035E-1,-6.611532E-2,-8.063702E-3,-1.02452986E-1,1.6913526E-1,2.6940463E-2],"categories":[],"categories_nodes":[],"categories_segments":[],"categories_sizes":[],"default_left":[0,0,0,0,0,0,0,0,0,0,0,0,0],"id":6,"left_children":[1,3,5,7,9,11,-1,-1,-1,-1,-1,-1,-1],"loss_changes":[3.4794296E1,3.9649227E1,5.9759674E0,8.0855465E0,9.807585E0,4.6911774E0,0E0,0E0,0E0,0E0,0E0,0E0,0E0],"parents":[2147483647,0,0,1,1,2,2,3,3,4,4,5,5],"right_children":[2,4,6,8,10,12,-1,-1,-1,-1,-1,-1,-1],"split_conditions":[7.199403E-1,6.7530864E-1,6.089235E-1,6.220526E-1,6.102221E-1,7.3717344E-1,-6.1956055E-2,1.6081035E-1,-6.611532E-2,-8.063702E-3,-1.02452986E-1,1.6913526E-1,2.6940463E-2],"split_indices":[16,27,13,12,19,10,0,0,0,0,0,0,0],"split_type":[0,0,0,0,0,0,0,0,0,0,0,0,0],"sum_hessian":[7.728832E1,6.0998253E1,1.6290066E1,1.087481E1,5.0123444E1,1.5259717E1,1.0303485E0,9.594448E0,1.2803624E0,1.6379814E1,3.374363E1,1.191086E1,3.3488567E0],"tree_param":{"num_deleted":"0","num_feature":"34","num_nodes":"13","size_leaf_vector":"1"}},{"base_weights":[3.7321195E-3,-3.2922426E-1,1.1615814E0,1.2182242E0,-6.912798E-1,1.527741E-1,2.9421398E-1,1.4999308E-1,-6.413218E-2,-7.339392E-3,-1.0016095E-1,1.1707832E-1,-2.1002961E-2],"categories":[],"categories_nodes":[],"categories_segments":[],"categories_sizes":[],"default_left":[0,0,0,0,0,0,0,0,0,0,0,0,0],"id":7,"left_children":[1,3,5,7,9,-1,11,-1,-1,-1,-1,-1,-1],"loss_changes":[2.932211E1,3.394323E1,4.945341E0,7.019844E0,9.2295685E0,0E0,3.0220315E0,0E0,0E0,0E0,0E0,0E0,0E0],"parents":[2147483647,0,0,1,1,2,2,3,3,4,4,6,6],"right_children":[2,4,6,8,10,-1,12,-1,-1,-1,-1,-1,-1],"split_conditions":[7.199403E-1,6.7530864E-1,6.313255E-1,6.220526E-1,6.102221E-1,1.527741E-1,7.5126994E-1,1.4999308E-1,-6.413218E-2,-7.339392E-3,-1.0016095E-1,1.1707832E-1,-2.1002961E-2],"split_indices":[16,27,17,12,19,0,31,0,0,0,0,0,0],"split_type":[0,0,0,0,0,0,0,0,0,0,0,0,0],"sum_hessian":[7.406793E1,5.8081432E1,1.5986502E1,1.05642805E1,4.751715E1,1.0705722E1,5.28078E0,9.342374E0,1.2219069E0,1.6299774E1,3.1217379E1,1.4457138E0,3.8350663E0],"tree_param":{"num_deleted":"0","num_feature":"34","num_nodes":"13","size_leaf_vector":"1"}},{"base_weights":[5.7189767E-3,-3.1317666E-1,1.0900489E0,6.783743E-1,-8.3478016E-1,1.3713075E0,1.0675769E-1,-6.923477E-2,1.3037296E-1,5.046148E-2,-1.04800776E-1,1.4904612E-1,3.3125381E-3,-8.397242E-2,1.3107483E-1],"categories":[],"categories_nodes":[],"categories_segments":[],"categories_sizes":[],"default_left":[0,0,0,0,0,0,0,0,0,0,0,0,0,0,0],"id":8,"left_children":[1,3,5,7,9,11,13,-1,-1,-1,-1,-1,-1,-1,-1],"loss_changes":[2.5176495E1,2.9672276E1,4.429365E0,1.80043E1,1.1188873E1,1.9885406E0,6.529965E0,0E0,0E0,0E0,0E0,0E0,0E0,0E0,0E0],"parents":[2147483647,0,0,1,1,2,2,3,3,4,4,5,5,6,6],"right_children":[2,4,6,8,10,12,14,-1,-1,-1,-1,-1,-1,-1,-1],"split_conditions":[7.199403E-1,7.291336E-1,7.3717344E-1,6.4977604E-1,4.9623904E-1,7.151604E-1,5.934129E-1,-6.923477E-2,1.3037296E-1,5.046148E-2,-1.04800776E-1,1.4904612E-1,3.3125381E-3,-8.397242E-2,1.3107483E-1],"split_indices":[16,33,10,30,18,27,9,0,0,0,0,0,0,0,0],"split_type":[0,0,0,0,0,0,0,0,0,0,0,0,0,0,0],"sum_hessian":[7.0821785E1,5.5276455E1,1.554533E1,1.895089E1,3.632557E1,1.1780929E1,3.764401E0,5.9036016E0,1.3047287E1,4.801056E0,3.1524511E1,1.0713212E1,1.0677166E0,2.276974E0,1.487427E0],"tree_param":{"num_deleted":"0","num_feature":"34","num_nodes":"15","size_leaf_vector":"1"}},{"base_weights":[6.6314777E-3,-2.973043E-1,1.0298231E0,9.0750635E-1,-6.9325405E-1,1.2942991E0,1.0725032E-1,-5.233394E-2,1.5665498E-1,4.5128725E-2,-8.6227514E-2,2.7300237E-4,1.414807E-1,-8.1376486E-2,1.2268161E-1],"categories":[],"categories_nodes":[],"categories_segments":[],"categories_sizes":[],"default_left":[0,0,0,0,0,0,0,0,0,0,0,0,0,0,0],"id":9,"left_children":[1,3,5,7,9,11,13,-1,-1,-1,-1,-1,-1,-1,-1],"loss_changes":[2.1702887E1,2.6304615E1,3.7605667E0,1.3782171E1,8.335346E0,1.9152603E0,5.794134E0,0E0,0E0,0E0,0E0,0E0,0E0,0E0,0E0],"parents":[2147483647,0,0,1,1,2,2,3,3,4,4,5,5,6,6],"right_children":[2,4,6,8,10,12,14,-1,-1,-1,-1,-1,-1,-1,-1],"split_conditions":[7.199403E-1,6.763294E-1,7.3717344E-1,6.469915E-1,4.9623904E-1,6.910517E-1,5.934129E-1,-5.233394E-2,1.5665498E-1,4.5128725E-2,-8.6227514E-2,2.7300237E-4,1.414807E-1,-8.1376486E-2,1.2268161E-1],"split_indices":[16,27,10,26,18,26,9,0,0,0,0,0,0,0,0],"split_type":[0,0,0,0,0,0,0,0,0,0,0,0,0,0,0],"sum_hessian":[6.7803154E1,5.2821983E1,1.4981168E1,1.2746002E1,4.007598E1,1.1330192E1,3.6509762E0,4.0843663E0,8.661635E0,4.941842E0,3.513414E1,1.0542029E0,1.027599E1,2.1529696E0,1.4980065E0],"tree_param":{"num_deleted":"0","num_feature":"34","num_nodes":"15","size_leaf_vector":"1"}},{"base_weights":[9.34306E-3,-8.721242E-1,3.3787173E-1,8.1299E-2,-1.0253453E0,9.164331E-1,-3.5824135E-1,-3.0573908E-2,-1.05286755E-1,-7.765919E-2,1.1106038E-1,-8.028798E-2,1.0816306E-1],"categories":[],"categories_nodes":[],"categories_segments":[],"categories_sizes":[],"default_left":[0,0,0,0,0,0,0,0,0,0,0,0,0],"id":10,"left_children":[1,3,5,-1,7,9,11,-1,-1,-1,-1,-1,-1],"loss_changes":[1.9281672E1,5.502054E0,1.9855198E1,0E0,1.51081085E-2,9.65913E0,1.5417866E1,0E0,0E0,0E0,0E0,0E0,0E0],"parents":[2147483647,0,0,1,1,2,2,4,4,5,5,6,6],"right_children":[2,4,6,-1,8,10,12,-1,-1,-1,-1,-1,-1],"split_conditions":[6.264684E-1,5.7720155E-1,6.664684E-1,8.1299E-2,5.86833E-1,6.466661E-1,6.688339E-1,-3.0573908E-2,-1.05286755E-1,-7.765919E-2,1.1106038E-1,-8.028798E-2,1.0816306E-1],"split_indices":[28,15,18,0,15,26,8,0,0,0,0,0,0],"split_type":[0,0,0,0,0,0,0,0,0,0,0,0,0],"sum_hessian":[6.456575E1,1.7081135E1,4.748461E1,1.0647798E0,1.6016356E1,2.5759E1,2.172561E1,1.0360564E0,1.49803E1,2.3416877E0,2.3417315E1,1.6937603E1,4.788007E0],"tree_param":{"num_deleted":"0","num_feature":"34","num_nodes":"13","size_leaf_vector":"1"}},{"base_weights":[7.1688606E-3,-3.6172423E-1,7.142189E-1,4.1482595E-1,-8.0873084E-1,-7.96161E-2,9.3381685E-1,1.3773987E-1,-5.8987524E-2,-1.0553302E-1,2.8505592E-2,1.2147679E-1,-3.7684787E-2],"categories":[],"categories_nodes":[],"categories_segments":[],"categories_sizes":[],"default_left":[0,0,0,0,0,0,0,0,0,0,0,0,0],"id":11,"left_children":[1,3,5,7,9,-1,11,-1,-1,-1,-1,-1,-1],"loss_changes":[1.6761885E1,1.4999369E1,8.050326E0,1.637711E1,7.6238937E0,0E0,7.709711E0,0E0,0E0,0E0,0E0,0E0,0E0],"parents":[2147483647,0,0,1,1,2,2,3,3,4,4,6,6],"right_children":[2,4,6,8,10,-1,12,-1,-1,-1,-1,-1,-1],"split_conditions":[6.2869215E-1,5.8652997E-1,6.277811E-1,6.1799693E-1,6.6443723E-1,-7.96161E-2,5.385767E-1,1.3773987E-1,-5.8987524E-2,-1.0553302E-1,2.8505592E-2,1.2147679E-1,-3.7684787E-2],"split_indices":[8,15,32,16,16,0,5,0,0,0,0,0,0],"split_type":[0,0,0,0,0,0,0,0,0,0,0,0,0],"sum_hessian":[6.2274143E1,4.1244057E1,2.1030085E1,1.5094149E1,2.614991E1,2.3362145E0,1.8693869E1,7.5192437E0,7.574905E0,2.1367636E1,4.7822742E0,1.5454289E1,3.2395802E0],"tree_param":{"num_deleted":"0","num_feature":"34","num_nodes":"13","size_leaf_vector":"1"}},{"base_weights":[5.352536E-3,-8.2335556E-1,2.8989124E-1,8.204394E-2,-9.959395E-2,7.933492E-1,-3.3199242E-1,-4.891112E-2,9.984088E-2,-7.562265E-2,9.3615346E-2],"categories":[],"categories_nodes":[],"categories_segments":[],"categories_sizes":[],"default_left":[0,0,0,0,0,0,0,0,0,0,0],"id":12,"left_children":[1,3,5,-1,-1,7,9,-1,-1,-1,-1],"loss_changes":[1.4588117E1,5.3035316E0,1.4678151E1,0E0,0E0,7.256809E0,1.2168469E1,0E0,0E0,0E0,0E0],"parents":[2147483647,0,0,1,1,2,2,5,5,6,6],"right_children":[2,4,6,-1,-1,8,10,-1,-1,-1,-1],"split_conditions":[6.264684E-1,5.51745E-1,6.664684E-1,8.204394E-2,-9.959395E-2,5.901071E-1,6.688339E-1,-4.891112E-2,9.984088E-2,-7.562265E-2,9.3615346E-2],"split_indices":[28,11,18,0,0,17,8,0,0,0,0],"split_type":[0,0,0,0,0,0,0,0,0,0,0],"sum_hessian":[5.9854374E1,1.4814387E1,4.5039986E1,1.0509202E0,1.3763467E1,2.4737526E1,2.0302462E1,3.219194E0,2.1518332E1,1.5515667E1,4.7867956E0],"tree_param":{"num_deleted":"0","num_feature":"34","num_nodes":"11","size_leaf_vector":"1"}},{"base_weights":[4.489846E-3,-7.5465673E-1,2.89045E-1,9.484815E-2,-1.01951E-1,1.3916433E0,-4.023152E-2,1.4883159E-1,4.6670914E-2,-5.907535E-2,7.851978E-2],"categories":[],"categories_nodes":[],"categories_segments":[],"categories_sizes":[],"default_left":[0,0,0,0,0,0,0,0,0,0,0],"id":13,"left_children":[1,3,5,-1,-1,7,9,-1,-1,-1,-1],"loss_changes":[1.2922383E1,8.324643E0,1.5848964E1,0E0,0E0,2.0235252E-1,1.612684E1,0E0,0E0,0E0,0E0],"parents":[2147483647,0,0,1,1,2,2,5,5,6,6],"right_children":[2,4,6,-1,-1,8,10,-1,-1,-1,-1],"split_conditions":[6.4705426E-1,5.8428276E-1,6.254664E-1,9.484815E-2,-1.01951E-1,6.249742E-1,7.199403E-1,1.4883159E-1,4.6670914E-2,-5.907535E-2,7.851978E-2],"split_indices":[26,15,23,0,0,20,16,0,0,0,0],"split_type":[0,0,0,0,0,0,0,0,0,0,0],"sum_hessian":[5.78108E1,1.5311135E1,4.2499664E1,1.7132069E0,1.3597929E1,9.031359E0,3.3468304E1,7.6252728E0,1.4060854E0,2.0248096E1,1.3220208E1],"tree_param":{"num_deleted":"0","num_feature":"34","num_nodes":"11","size_leaf_vector":"1"}},{"base_weights":[7.1099726E-3,-7.314692E-1,2.746549E-1,8.762124E-2,-1.0050036E-1,1.3298616E0,-3.7309296E-2,1.4326358E-1,4.353189E-2,-5.582984E-2,7.224905E-2],"categories":[],"categories_nodes":[],"categories_segments":[],"categories_sizes":[],"default_left":[0,0,0,0,0,0,0,0,0,0,0],"id":14,"left_children":[1,3,5,-1,-1,7,9,-1,-1,-1,-1],"loss_changes":[1.1319806E1,7.580635E0,1.3886347E1,0E0,0E0,2.6063156E-1,1.3630444E1,0E0,0E0,0E0,0E0],"parents":[2147483647,0,0,1,1,2,2,5,5,6,6],"right_children":[2,4,6,-1,-1,8,10,-1,-1,-1,-1],"split_conditions":[6.4705426E-1,5.8428276E-1,6.254664E-1,8.762124E-2,-1.0050036E-1,6.249742E-1,7.199403E-1,1.4326358E-1,4.353189E-2,-5.582984E-2,7.224905E-2],"split_indices":[26,15,23,0,0,20,16,0,0,0,0],"split_type":[0,0,0,0,0,0,0,0,0,0,0],"sum_hessian":[5.526888E1,1.4235803E1,4.1033077E1,1.7495615E0,1.2486241E1,8.618493E0,3.2414585E1,7.190811E0,1.4276816E0,1.9386564E1,1.3028021E1],"tree_param":{"num_deleted":"0","num_feature":"34","num_nodes":"11","size_leaf_vector":"1"}},{"base_weights":[9.485538E-3,-7.087573E-1,2.6093376E-1,8.103114E-2,-9.910028E-2,5.06904E-1,-9.634375E-2,-6.2112745E-2,8.157945E-2],"categories":[],"categories_nodes":[],"categories_segments":[],"categories_sizes":[],"default_left":[0,0,0,0,0,0,0,0,0],"id":15,"left_children":[1,3,5,-1,-1,7,-1,-1,-1],"loss_changes":[9.9189415E0,6.9106593E0,1.2731279E1,0E0,0E0,1.2530339E1,0E0,0E0,0E0],"parents":[2147483647,0,0,1,1,2,2,5,5],"right_children":[2,4,6,-1,-1,8,-1,-1,-1],"split_conditions":[6.4705426E-1,5.8428276E-1,6.089235E-1,8.103114E-2,-9.910028E-2,6.1564964E-1,-9.634375E-2,-6.2112745E-2,8.157945E-2],"split_indices":[26,15,13,0,0,21,0,0,0],"split_type":[0,0,0,0,0,0,0,0,0],"sum_hessian":[5.289787E1,1.3245215E1,3.9652653E1,1.7822188E0,1.14629965E1,3.3507206E1,6.1454477E0,6.9856405E0,2.6521566E1],"tree_param":{"num_deleted":"0","num_feature":"34","num_nodes":"9","size_leaf_vector":"1"}},{"base_weights":[5.486921E-3,-5.500315E-1,2.9361245E-1,6.3733125E-1,-9.986996E-2,5.020499E-1,-9.183486E-2,1.4564134E-1,-7.570459E-2,-7.025674E-2,7.947489E-2],"categories":[],"categories_nodes":[],"categories_segments":[],"categories_sizes":[],"default_left":[0,0,0,0,0,0,0,0,0,0,0],"id":16,"left_children":[1,3,5,7,-1,9,-1,-1,-1,-1,-1],"loss_changes":[8.528389E0,1.0332667E1,9.321119E0,7.5005217E0,0E0,1.1337996E1,0E0,0E0,0E0,0E0,0E0],"parents":[2147483647,0,0,1,1,2,2,3,3,5,5],"right_children":[2,4,6,8,-1,10,-1,-1,-1,-1,-1],"split_conditions":[6.2852585E-1,5.863363E-1,6.089235E-1,6.4889E-1,-9.986996E-2,5.8857274E-1,-9.183486E-2,1.4564134E-1,-7.570459E-2,-7.025674E-2,7.947489E-2],"split_indices":[32,15,13,10,0,17,0,0,0,0,0],"split_type":[0,0,0,0,0,0,0,0,0,0,0],"sum_hessian":[5.1273792E1,1.7200836E1,3.4072956E1,4.6018715E0,1.2598965E1,2.957269E1,4.500265E0,2.8709397E0,1.7309318E0,5.5072045E0,2.4065485E1],"tree_param":{"num_deleted":"0","num_feature":"34","num_nodes":"11","size_leaf_vector":"1"}},{"base_weights":[1.2424182E-3,-6.7587626E-1,2.2267456E-1,6.516078E-2,-9.6687935E-2,1.2273723E0,-6.367967E-2,1.3421659E-1,3.7294526E-2,-4.283988E-2,7.569948E-2],"categories":[],"categories_nodes":[],"categories_segments":[],"categories_sizes":[],"default_left":[0,0,0,0,0,0,0,0,0,0,0],"id":17,"left_children":[1,3,5,-1,-1,7,9,-1,-1,-1,-1],"loss_changes":[7.7269144E0,5.5361786E0,1.1249739E1,0E0,0E0,3.490343E-1,9.653602E0,0E0,0E0,0E0,0E0],"parents":[2147483647,0,0,1,1,2,2,5,5,6,6],"right_children":[2,4,6,-1,-1,8,10,-1,-1,-1,-1],"split_conditions":[6.4705426E-1,5.8428276E-1,6.254664E-1,6.516078E-2,-9.6687935E-2,6.249742E-1,7.154522E-1,1.3421659E-1,3.7294526E-2,-4.283988E-2,7.569948E-2],"split_indices":[26,15,23,0,0,20,32,0,0,0,0],"split_type":[0,0,0,0,0,0,0,0,0,0,0],"sum_hessian":[4.9531036E1,1.1700306E1,3.783073E1,1.8809047E0,9.819402E0,7.6619473E0,3.0168783E1,6.2512455E0,1.4107014E0,2.1217447E1,8.951336E0],"tree_param":{"num_deleted":"0","num_feature":"34","num_nodes":"11","size_leaf_vector":"1"}},{"base_weights":[4.330901E-3,-2.928003E-1,4.968008E-1,1.2853774E-1,-8.0569655E-1,6.495704E-1,-7.437169E-2,-6.1376937E-2,5.6462746E-2,-9.701807E-2,2.2263123E-2,-6.80119E-2,8.328879E-2],"categories":[],"categories_nodes":[],"categories_segments":[],"categories_sizes":[],"default_left":[0,0,0,0,0,0,0,0,0,0,0,0,0],"id":18,"left_children":[1,3,5,7,9,11,-1,-1,-1,-1,-1,-1,-1],"loss_changes":[7.2574253E0,6.7903194E0,4.019478E0,6.124785E0,2.5996647E0,4.746394E0,0E0,0E0,0E0,0E0,0E0,0E0,0E0],"parents":[2147483647,0,0,1,1,2,2,3,3,4,4,5,5],"right_children":[2,4,6,8,10,12,-1,-1,-1,-1,-1,-1,-1],"split_conditions":[6.2869215E-1,6.171154E-1,6.6682905E-1,6.1708117E-1,7.199135E-1,6.277811E-1,-7.437169E-2,-6.1376937E-2,5.6462746E-2,-9.701807E-2,2.2263123E-2,-6.80119E-2,8.328879E-2],"split_indices":[8,19,23,21,16,32,0,0,0,0,0,0,0],"split_type":[0,0,0,0,0,0,0,0,0,0,0,0,0],"sum_hessian":[4.7602818E1,2.9942492E1,1.7660326E1,1.6849895E1,1.3092596E1,1.6148066E1,1.5122609E0,6.084866E0,1.076503E1,1.1335926E1,1.75667E0,1.6281623E0,1.4519903E1],"tree_param":{"num_deleted":"0","num_feature":"34","num_nodes":"13","size_leaf_vector":"1"}},{"base_weights":[-1.396268E-4,-6.44393E-1,2.0107456E-1,5.6357976E-2,-9.4604306E-2,1.0013697E0,-1.2156856E-1,1.3415906E-1,-6.8854265E-2,-7.655146E-2,4.9235918E-2],"categories":[],"categories_nodes":[],"categories_segments":[],"categories_sizes":[],"default_left":[0,0,0,0,0,0,0,0,0,0,0],"id":19,"left_children":[1,3,5,-1,-1,7,9,-1,-1,-1,-1],"loss_changes":[6.2532663E0,4.716401E0,9.613135E0,0E0,0E0,7.0582285E0,1.1086081E1,0E0,0E0,0E0,0E0],"parents":[2147483647,0,0,1,1,2,2,5,5,6,6],"right_children":[2,4,6,-1,-1,8,10,-1,-1,-1,-1],"split_conditions":[6.4705426E-1,5.8428276E-1,6.798472E-1,5.6357976E-2,-9.4604306E-2,5.4319006E-1,6.9634753E-1,1.3415906E-1,-6.8854265E-2,-7.655146E-2,4.9235918E-2],"split_indices":[26,15,29,0,0,1,16,0,0,0,0],"split_type":[0,0,0,0,0,0,0,0,0,0,0],"sum_hessian":[4.623874E1,1.0480249E1,3.575849E1,1.9206371E0,8.559612E0,9.669724E0,2.6088766E1,8.220795E0,1.4489293E0,1.2612577E1,1.3476188E1],"tree_param":{"num_deleted":"0","num_feature":"34","num_nodes":"11","size_leaf_vector":"1"}},{"base_weights":[-1.27042E-3,6.1864346E-1,-2.1427743E-1,1.1814684E0,-1.3894016E-1,5.261779E-1,-6.157386E-1,-5.906127E-2,1.5914781E-1,-9.40153E-2,9.075629E-2,-7.8605644E-2,9.016769E-2,-9.05801E-2,2.3671936E-2],"categories":[],"categories_nodes":[],"categories_segments":[],"categories_sizes":[],"default_left":[0,0,0,0,0,0,0,0,0,0,0,0,0,0,0],"id":20,"left_children":[1,3,5,7,9,11,13,-1,-1,-1,-1,-1,-1,-1,-1],"loss_changes":[6.144766E0,5.238655E0,1.0618234E1,5.9776316E0,5.856955E0,6.9734993E0,5.8807583E0,0E0,0E0,0E0,0E0,0E0,0E0,0E0,0E0],"parents":[2147483647,0,0,1,1,2,2,3,3,4,4,5,5,6,6],"right_children":[2,4,6,8,10,12,14,-1,-1,-1,-1,-1,-1,-1,-1],"split_conditions":[4.9623904E-1,7.444712E-1,7.291336E-1,7.341424E-1,7.241108E-1,6.272704E-1,7.199403E-1,-5.906127E-2,1.5914781E-1,-9.40153E-2,9.075629E-2,-7.8605644E-2,9.016769E-2,-9.05801E-2,2.3671936E-2],"split_indices":[18,31,33,31,24,32,16,0,0,0,0,0,0,0,0],"split_type":[0,0,0,0,0,0,0,0,0,0,0,0,0,0,0],"sum_hessian":[4.4531136E1,1.0901164E1,3.362997E1,5.9335113E0,4.967653E0,1.1714001E1,2.191597E1,1.0321267E0,4.9013844E0,2.8711197E0,2.096533E0,2.3629549E0,9.351046E0,1.630527E1,5.610702E0],"tree_param":{"num_deleted":"0","num_feature":"34","num_nodes":"15","size_leaf_vector":"1"}},{"base_weights":[-1.3028486E-3,-7.629441E-1,1.6203187E-1,2.0908779E-2,-9.5873766E-2,8.9733225E-1,-1.9222051E-1,1.2999912E-1,-2.5869295E-2,6.581508E-2,-5.9529483E-2],"categories":[],"categories_nodes":[],"categories_segments":[],"categories_sizes":[],"default_left":[0,0,0,0,0,0,0,0,0,0,0],"id":21,"left_children":[1,3,5,-1,-1,7,9,-1,-1,-1,-1],"loss_changes":[5.549304E0,1.699523E0,9.741888E0,0E0,0E0,5.9784403E0,9.172102E0,0E0,0E0,0E0,0E0],"parents":[2147483647,0,0,1,1,2,2,5,5,6,6],"right_children":[2,4,6,-1,-1,8,10,-1,-1,-1,-1],"split_conditions":[5.8857274E-1,6.204361E-1,6.010141E-1,2.0908779E-2,-9.5873766E-2,6.492979E-1,7.291336E-1,1.2999912E-1,-2.5869295E-2,6.581508E-2,-5.9529483E-2],"split_indices":[17,23,19,0,0,25,33,0,0,0,0],"split_type":[0,0,0,0,0,0,0,0,0,0,0],"sum_hessian":[4.2613945E1,6.876641E0,3.5737305E1,1.1415299E0,5.735111E0,1.1121027E1,2.4616278E1,8.15574E0,2.965287E0,7.7124305E0,1.6903847E1],"tree_param":{"num_deleted":"0","num_feature":"34","num_nodes":"11","size_leaf_vector":"1"}},{"base_weights":[-1.0344532E-3,-6.2918115E-1,1.9074337E-1,4.890017E-2,-9.3280025E-2,4.903407E-1,-5.1826644E-1,-5.0407656E-2,8.239582E-2,-8.1635475E-2,8.6030565E-2],"categories":[],"categories_nodes":[],"categories_segments":[],"categories_sizes":[],"default_left":[0,0,0,0,0,0,0,0,0,0,0],"id":22,"left_children":[1,3,5,-1,-1,7,9,-1,-1,-1,-1],"loss_changes":[5.240298E0,3.9103322E0,7.3340387E0,0E0,0E0,8.358749E0,4.9705343E0,0E0,0E0,0E0,0E0],"parents":[2147483647,0,0,1,1,2,2,5,5,6,6],"right_children":[2,4,6,-1,-1,8,10,-1,-1,-1,-1],"split_conditions":[6.4705426E-1,5.9963775E-1,5.878714E-1,4.890017E-2,-9.3280025E-2,6.1564964E-1,5.934129E-1,-5.0407656E-2,8.239582E-2,-8.1635475E-2,8.6030565E-2],"split_indices":[26,19,13,0,0,21,9,0,0,0,0],"split_type":[0,0,0,0,0,0,0,0,0,0,0],"sum_hessian":[4.1504482E1,9.174302E0,3.2330177E1,1.8287429E0,7.345559E0,2.2943604E1,9.386575E0,5.635341E0,1.7308262E1,8.053084E0,1.3334906E0],"tree_param":{"num_deleted":"0","num_feature":"34","num_nodes":"11","size_leaf_vector":"1"}},{"base_weights":[-2.2193282E-3,-1.7134848E-1,6.939773E-1,3.8173413E-1,-5.178442E-1,8.712323E-1,-1.8831035E-2,1.2179242E-3,2.1326903E-1,-6.461106E-2,8.257986E-2,-3.5512273E-3,1.0358248E-1],"categories":[],"categories_nodes":[],"categories_segments":[],"categories_sizes":[],"default_left":[0,0,0,0,0,0,0,0,0,0,0,0,0],"id":23,"left_children":[1,3,5,7,9,11,-1,-1,-1,-1,-1,-1,-1],"loss_changes":[4.9680104E0,6.701035E0,1.4538338E0,8.8044195E0,4.2025075E0,1.0882316E0,0E0,0E0,0E0,0E0,0E0,0E0,0E0],"parents":[2147483647,0,0,1,1,2,2,3,3,4,4,5,5],"right_children":[2,4,6,8,10,12,-1,-1,-1,-1,-1,-1,-1],"split_conditions":[7.154522E-1,6.798472E-1,7.151604E-1,6.79976E-1,5.934129E-1,7.271691E-1,-1.8831035E-2,1.2179242E-3,2.1326903E-1,-6.461106E-2,8.257986E-2,-3.5512273E-3,1.0358248E-1],"split_indices":[32,29,27,27,9,16,0,0,0,0,0,0,0],"split_type":[0,0,0,0,0,0,0,0,0,0,0,0,0],"sum_hessian":[4.01823E1,3.2935143E1,7.247155E0,1.2646645E1,2.02885E1,6.0451846E0,1.2019705E0,1.12741E1,1.3725438E0,1.8994398E1,1.2941025E0,1.0492238E0,4.9959607E0],"tree_param":{"num_deleted":"0","num_feature":"34","num_nodes":"13","size_leaf_vector":"1"}},{"base_weights":[5.2116853E-3,-7.190886E-1,1.5689714E-1,1.973021E-2,-9.260013E-2,8.028168E-1,-1.6915663E-1,2.2327209E-2,1.6954349E-1,6.0134884E-2,-5.5753898E-2],"categories":[],"categories_nodes":[],"categories_segments":[],"categories_sizes":[],"default_left":[0,0,0,0,0,0,0,0,0,0,0],"id":24,"left_children":[1,3,5,-1,-1,7,9,-1,-1,-1,-1],"loss_changes":[4.514234E0,1.532021E0,7.284881E0,0E0,0E0,5.6022263E0,7.3330355E0,0E0,0E0,0E0,0E0],"parents":[2147483647,0,0,1,1,2,2,5,5,6,6],"right_children":[2,4,6,-1,-1,8,10,-1,-1,-1,-1],"split_conditions":[5.8857274E-1,4.3729967E-1,6.010141E-1,1.973021E-2,-9.260013E-2,5.790281E-1,7.291336E-1,2.2327209E-2,1.6954349E-1,6.0134884E-2,-5.5753898E-2],"split_indices":[17,10,19,0,0,15,33,0,0,0,0],"split_type":[0,0,0,0,0,0,0,0,0,0,0],"sum_hessian":[3.9061695E1,6.116182E0,3.2945515E1,1.1351576E0,4.9810243E0,1.0561241E1,2.2384272E1,7.161602E0,3.399639E0,7.317956E0,1.5066316E1],"tree_param":{"num_deleted":"0","num_feature":"34","num_nodes":"11","size_leaf_vector":"1"}},{"base_weights":[7.432197E-3,-5.3270996E-1,2.0486076E-1,6.741661E-1,-9.25408E-2,1.1169403E0,-3.672457E-2,9.3072005E-2,9.1345245E-3,1.276476E-1,1.8221939E-2,-3.475177E-2,6.679758E-2],"categories":[],"categories_nodes":[],"categories_segments":[],"categories_sizes":[],"default_left":[0,0,0,0,0,0,0,0,0,0,0,0,0],"id":25,"left_children":[1,3,5,7,-1,9,11,-1,-1,-1,-1,-1,-1],"loss_changes":[4.2855597E0,5.723894E0,6.519836E0,3.9650786E-1,0E0,6.9031954E-1,5.535392E0,0E0,0E0,0E0,0E0,0E0,0E0],"parents":[2147483647,0,0,1,1,2,2,3,3,5,5,6,6],"right_children":[2,4,6,8,-1,10,12,-1,-1,-1,-1,-1,-1],"split_conditions":[6.505934E-1,5.852246E-1,7.294119E-1,6.202369E-1,-9.25408E-2,5.589037E-1,7.154522E-1,9.3072005E-2,9.1345245E-3,1.276476E-1,1.8221939E-2,-3.475177E-2,6.679758E-2],"split_indices":[30,15,31,12,0,13,32,0,0,0,0,0,0],"split_type":[0,0,0,0,0,0,0,0,0,0,0,0,0],"sum_hessian":[3.8163994E1,9.760937E0,2.8403057E1,2.220362E0,7.540575E0,5.189035E0,2.3214022E1,1.1272366E0,1.0931253E0,4.1201897E0,1.068845E0,1.6461073E1,6.752949E0],"tree_param":{"num_deleted":"0","num_feature":"34","num_nodes":"13","size_leaf_vector":"1"}},{"base_weights":[1.1633862E-2,1.292093E-1,-8.5388504E-2,-4.6472964E-1,3.987866E-1,2.2523323E-2,-8.9402735E-2,-5.57674E-2,6.231786E-2],"categories":[],"categories_nodes":[],"categories_segments":[],"categories_sizes":[],"default_left":[0,0,0,0,0,0,0,0,0],"id":26,"left_children":[1,3,-1,5,7,-1,-1,-1,-1],"loss_changes":[3.9537783E0,5.6483517E0,0E0,3.4931965E0,5.499826E0,0E0,0E0,0E0,0E0],"parents":[2147483647,0,0,1,1,3,3,4,4],"right_children":[2,4,-1,6,8,-1,-1,-1,-1],"split_conditions":[6.089235E-1,6.269467E-1,-8.5388504E-2,5.8652997E-1,5.8857274E-1,2.2523323E-2,-8.9402735E-2,-5.57674E-2,6.231786E-2],"split_indices":[13,28,0,15,17,0,0,0,0],"split_type":[0,0,0,0,0,0,0,0,0],"sum_hessian":[3.676834E1,3.311992E1,3.6484232E0,1.0113564E1,2.3006357E1,4.061426E0,6.0521374E0,4.0895543E0,1.8916801E1],"tree_param":{"num_deleted":"0","num_feature":"34","num_nodes":"9","size_leaf_vector":"1"}},{"base_weights":[5.7425955E-3,5.3350043E-1,-1.7784794E-1,1.0923984E0,-1.8935458E-1,3.1134114E-1,-5.639879E-1,1.7574957E-2,1.3025202E-1,-8.765942E-2,7.893622E-2,-6.475812E-2,7.019295E-2,-9.6438676E-2,2.5135098E-2],"categories":[],"categories_nodes":[],"categories_segments":[],"categories_sizes":[],"default_left":[0,0,0,0,0,0,0,0,0,0,0,0,0,0,0],"id":27,"left_children":[1,3,5,7,9,11,13,-1,-1,-1,-1,-1,-1,-1,-1],"loss_changes":[3.6689527E0,4.1540394E0,5.486802E0,8.6080456E-1,4.1306787E0,5.341547E0,5.48841E0,0E0,0E0,0E0,0E0,0E0,0E0,0E0,0E0],"parents":[2147483647,0,0,1,1,2,2,3,3,4,4,5,5,6,6],"right_children":[2,4,6,8,10,12,14,-1,-1,-1,-1,-1,-1,-1,-1],"split_conditions":[4.9623904E-1,7.444712E-1,7.2972554E-1,5.6313777E-1,7.241108E-1,6.4705426E-1,7.199403E-1,1.7574957E-2,1.3025202E-1,-8.765942E-2,7.893622E-2,-6.475812E-2,7.019295E-2,-9.6438676E-2,2.5135098E-2],"split_indices":[18,31,33,13,24,26,16,0,0,0,0,0,0,0,0],"split_type":[0,0,0,0,0,0,0,0,0,0,0,0,0,0,0],"sum_hessian":[3.588741E1,8.770215E0,2.7117191E1,4.6577234E0,4.112492E0,1.2047847E1,1.5069345E1,1.2110369E0,3.4466867E0,2.4773083E0,1.6351837E0,3.2965693E0,8.751278E0,9.983712E0,5.0856338E0],"tree_param":{"num_deleted":"0","num_feature":"34","num_nodes":"15","size_leaf_vector":"1"}},{"base_weights":[6.3262405E-3,-6.225157E-1,1.5740684E-1,4.7950886E-2,-8.998456E-2,6.959137E-1,-7.362703E-2,-3.561408E-2,1.1039614E-1,-7.264345E-2,2.7655665E-2],"categories":[],"categories_nodes":[],"categories_segments":[],"categories_sizes":[],"default_left":[0,0,0,0,0,0,0,0,0,0,0],"id":28,"left_children":[1,3,5,-1,-1,7,9,-1,-1,-1,-1],"loss_changes":[3.479003E0,2.6000566E0,3.7204237E0,0E0,0E0,4.2352204E0,5.1254735E0,0E0,0E0,0E0,0E0],"parents":[2147483647,0,0,1,1,2,2,5,5,6,6],"right_children":[2,4,6,-1,-1,8,10,-1,-1,-1,-1],"split_conditions":[6.2741697E-1,5.063821E-1,7.291336E-1,4.7950886E-2,-8.998456E-2,6.336358E-1,6.7235816E-1,-3.561408E-2,1.1039614E-1,-7.264345E-2,2.7655665E-2],"split_indices":[32,10,33,0,0,0,24,0,0,0,0],"split_type":[0,0,0,0,0,0,0,0,0,0,0],"sum_hessian":[3.4587452E1,6.095551E0,2.84919E1,1.0789826E0,5.0165687E0,7.9498253E0,2.0542074E1,2.257249E0,5.6925764E0,6.7969174E0,1.3745157E1],"tree_param":{"num_deleted":"0","num_feature":"34","num_nodes":"11","size_leaf_vector":"1"}},{"base_weights":[4.7411514E-3,-6.4847404E-1,1.4243218E-1,2.8170342E-2,-8.8635795E-2,6.837326E-1,-1.5651761E-1,1.3036089E-2,1.5388985E-1,5.058235E-2,-4.9375124E-2],"categories":[],"categories_nodes":[],"categories_segments":[],"categories_sizes":[],"default_left":[0,0,0,0,0,0,0,0,0,0,0],"id":29,"left_children":[1,3,5,-1,-1,7,9,-1,-1,-1,-1],"loss_changes":[3.2152658E0,1.6270821E0,4.880192E0,0E0,0E0,4.8537774E0,4.675876E0,0E0,0E0,0E0,0E0],"parents":[2147483647,0,0,1,1,2,2,5,5,6,6],"right_children":[2,4,6,-1,-1,8,10,-1,-1,-1,-1],"split_conditions":[5.8857274E-1,4.3729967E-1,6.010141E-1,2.8170342E-2,-8.8635795E-2,5.790281E-1,7.291336E-1,1.3036089E-2,1.5388985E-1,5.058235E-2,-4.9375124E-2],"split_indices":[17,10,19,0,0,15,33,0,0,0,0],"split_type":[0,0,0,0,0,0,0,0,0,0,0],"sum_hessian":[3.372134E1,5.2248206E0,2.8496521E1,1.0265563E0,4.198264E0,9.680742E0,1.8815779E1,6.5771527E0,3.1035895E0,6.1793513E0,1.2636427E1],"tree_param":{"num_deleted":"0","num_feature":"34","num_nodes":"11","size_leaf_vector":"1"}},{"base_weights":[7.103645E-3,-1.09002836E-1,7.9180807E-1,1.2448225E-1,-6.643235E-1,8.965733E-2,2.1290638E-2,-4.1446876E-2,4.6149693E-2,-9.9994965E-2,8.033761E-2],"categories":[],"categories_nodes":[],"categories_segments":[],"categories_sizes":[],"default_left":[0,0,0,0,0,0,0,0,0,0,0],"id":30,"left_children":[1,3,5,7,9,-1,-1,-1,-1,-1,-1],"loss_changes":[3.1879885E0,4.041785E0,8.2573414E-2,4.2487345E0,5.3332677E0,0E0,0E0,0E0,0E0,0E0,0E0],"parents":[2147483647,0,0,1,1,2,2,3,3,4,4],"right_children":[2,4,6,8,10,-1,-1,-1,-1,-1,-1],"split_conditions":[7.4778354E-1,6.9854087E-1,7.473203E-1,6.269467E-1,5.934129E-1,8.965733E-2,2.1290638E-2,-4.1446876E-2,4.6149693E-2,-9.9994965E-2,8.033761E-2],"split_indices":[16,29,8,28,9,0,0,0,0,0,0],"split_type":[0,0,0,0,0,0,0,0,0,0,0],"sum_hessian":[3.3043507E1,2.9534597E1,3.508909E0,2.13386E1,8.195996E0,2.5065448E0,1.0023642E0,8.1212845E0,1.3217316E1,6.92998E0,1.2660166E0],"tree_param":{"num_deleted":"0","num_feature":"34","num_nodes":"11","size_leaf_vector":"1"}},{"base_weights":[8.673888E-3,-6.305658E-1,1.4256962E-1,2.3881944E-2,-8.689348E-2,6.3126576E-1,-1.3394979E-1,1.1691209E-2,1.4353548E-1,4.7376063E-2,-4.5958355E-2],"categories":[],"categories_nodes":[],"categories_segments":[],"categories_sizes":[],"default_left":[0,0,0,0,0,0,0,0,0,0,0],"id":31,"left_children":[1,3,5,-1,-1,7,9,-1,-1,-1,-1],"loss_changes":[2.9399855E0,1.4408236E0,3.9152632E0,0E0,0E0,4.1412315E0,3.9635596E0,0E0,0E0,0E0,0E0],"parents":[2147483647,0,0,1,1,2,2,5,5,6,6],"right_children":[2,4,6,-1,-1,8,10,-1,-1,-1,-1],"split_conditions":[5.8857274E-1,4.3729967E-1,6.010141E-1,2.3881944E-2,-8.689348E-2,5.790281E-1,7.291336E-1,1.1691209E-2,1.4353548E-1,4.7376063E-2,-4.5958355E-2],"split_indices":[17,10,19,0,0,15,33,0,0,0,0],"split_type":[0,0,0,0,0,0,0,0,0,0,0],"sum_hessian":[3.2298717E1,4.9512544E0,2.7347462E1,1.065015E0,3.8862395E0,9.418729E0,1.7928734E1,6.4428263E0,2.9759023E0,6.096437E0,1.1832296E1],"tree_param":{"num_deleted":"0","num_feature":"34","num_nodes":"11","size_leaf_vector":"1"}},{"base_weights":[1.0462557E-2,-1.02912724E-1,7.654436E-1,1.059693E-1,-6.241618E-1,8.703177E-2,2.1075286E-2,2.5671814E-2,-7.7897385E-2,-9.7537845E-2,7.903149E-2],"categories":[],"categories_nodes":[],"categories_segments":[],"categories_sizes":[],"default_left":[0,0,0,0,0,0,0,0,0,0,0],"id":32,"left_children":[1,3,5,7,9,-1,-1,-1,-1,-1,-1],"loss_changes":[2.87682E0,3.2565775E0,7.175112E-2,3.104746E0,5.0075736E0,0E0,0E0,0E0,0E0,0E0,0E0],"parents":[2147483647,0,0,1,1,2,2,3,3,4,4],"right_children":[2,4,6,8,10,-1,-1,-1,-1,-1,-1],"split_conditions":[7.4778354E-1,6.4602417E-1,7.2067004E-1,5.4319006E-1,5.934129E-1,8.703177E-2,2.1075286E-2,2.5671814E-2,-7.7897385E-2,-9.7537845E-2,7.903149E-2],"split_indices":[16,23,10,1,9,0,0,0,0,0,0],"split_type":[0,0,0,0,0,0,0,0,0,0,0],"sum_hessian":[3.168891E1,2.8302431E1,3.3864791E0,2.0774208E1,7.528223E0,2.3694746E0,1.0170047E0,1.835702E1,2.4171884E0,6.279456E0,1.2487671E0],"tree_param":{"num_deleted":"0","num_feature":"34","num_nodes":"11","size_leaf_vector":"1"}},{"base_weights":[1.0058238E-2,-1.2782593E-1,6.042679E-1,-2.3289244E-1,9.290162E-2,7.7463365E-1,-1.3575402E-2,5.8661024E-3,-8.1191145E-2,1.4601019E-2,8.979073E-2],"categories":[],"categories_nodes":[],"categories_segments":[],"categories_sizes":[],"default_left":[0,0,0,0,0,0,0,0,0,0,0],"id":33,"left_children":[1,3,5,7,-1,9,-1,-1,-1,-1,-1],"loss_changes":[2.7004664E0,3.1935637E0,8.874223E-1,4.2996273E0,0E0,2.7129698E-1,0E0,0E0,0E0,0E0,0E0],"parents":[2147483647,0,0,1,1,2,2,3,3,5,5],"right_children":[2,4,6,8,-1,10,-1,-1,-1,-1,-1],"split_conditions":[7.154522E-1,6.791139E-1,7.151604E-1,6.734723E-1,9.290162E-2,7.48747E-1,-1.3575402E-2,5.8661024E-3,-8.1191145E-2,1.4601019E-2,8.979073E-2],"split_indices":[32,0,27,18,0,33,0,0,0,0,0],"split_type":[0,0,0,0,0,0,0,0,0,0,0],"sum_hessian":[3.1017065E1,2.5812296E1,5.204768E0,2.4187334E1,1.6249628E0,4.192753E0,1.0120152E0,1.668475E1,7.502584E0,1.0455418E0,3.1472113E0],"tree_param":{"num_deleted":"0","num_feature":"34","num_nodes":"11","size_leaf_vector":"1"}},{"base_weights":[1.2371149E-2,-5.994674E-1,1.3927263E-1,-8.555999E-2,2.431571E-2,-2.873514E-1,4.0863213E-1,9.606199E-2,-5.421852E-2,7.597033E-2,-3.2963034E-2],"categories":[],"categories_nodes":[],"categories_segments":[],"categories_sizes":[],"default_left":[0,0,0,0,0,0,0,0,0,0,0],"id":34,"left_children":[1,3,5,-1,-1,7,9,-1,-1,-1,-1],"loss_changes":[2.5251422E0,1.4146147E0,3.2036471E0,0E0,0E0,4.0131154E0,4.6242313E0,0E0,0E0,0E0,0E0],"parents":[2147483647,0,0,1,1,2,2,5,5,6,6],"right_children":[2,4,6,-1,-1,8,10,-1,-1,-1,-1],"split_conditions":[5.8857274E-1,6.996432E-1,6.2874264E-1,-8.555999E-2,2.431571E-2,5.715913E-1,6.313255E-1,9.606199E-2,-5.421852E-2,7.597033E-2,-3.2963034E-2],"split_indices":[17,32,32,0,0,15,17,0,0,0,0],"split_type":[0,0,0,0,0,0,0,0,0,0,0],"sum_hessian":[3.044708E1,4.590537E0,2.5856544E1,3.508623E0,1.0819144E0,9.981147E0,1.5875397E1,1.2228779E0,8.758269E0,1.0739382E1,5.136016E0],"tree_param":{"num_deleted":"0","num_feature":"34","num_nodes":"11","size_leaf_vector":"1"}},{"base_weights":[1.1781614E-2,-5.107656E-1,1.5309353E-1,4.913203E-2,-8.4919095E-2,9.4504917E-1,-6.09647E-2,1.0537912E-1,2.3637291E-2,-8.3422475E-2,1.1794948E-2],"categories":[],"categories_nodes":[],"categories_segments":[],"categories_sizes":[],"default_left":[0,0,0,0,0,0,0,0,0,0,0],"id":35,"left_children":[1,3,5,-1,-1,7,9,-1,-1,-1,-1],"loss_changes":[2.3412087E0,2.7077808E0,4.2774982E0,0E0,0E0,1.6375256E-1,2.9393935E0,0E0,0E0,0E0,0E0],"parents":[2147483647,0,0,1,1,2,2,5,5,6,6],"right_children":[2,4,6,-1,-1,8,10,-1,-1,-1,-1],"split_conditions":[6.4705426E-1,5.9963775E-1,6.254664E-1,4.913203E-2,-8.4919095E-2,6.249742E-1,6.2828237E-1,1.0537912E-1,2.3637291E-2,-8.3422475E-2,1.1794948E-2],"split_indices":[26,19,23,0,0,20,23,0,0,0,0],"split_type":[0,0,0,0,0,0,0,0,0,0,0],"sum_hessian":[2.964664E1,5.754188E0,2.3892454E1,1.3386446E0,4.415543E0,4.357182E0,1.9535273E1,3.3553407E0,1.0018413E0,2.9824653E0,1.6552807E1],"tree_param":{"num_deleted":"0","num_feature":"34","num_nodes":"11","size_leaf_vector":"1"}},{"base_weights":[1.1156275E-2,1.0668721E-1,-7.5958274E-2,-4.037706E-1,3.0405134E-1,2.0583926E-2,-8.24381E-2,6.8279326E-2,-6.8906657E-3],"categories":[],"categories_nodes":[],"categories_segments":[],"categories_sizes":[],"default_left":[0,0,0,0,0,0,0,0,0],"id":36,"left_children":[1,3,-1,5,7,-1,-1,-1,-1],"loss_changes":[2.2877433E0,2.8975334E0,0E0,2.2489624E0,2.933303E0,0E0,0E0,0E0,0E0],"parents":[2147483647,0,0,1,1,3,3,4,4],"right_children":[2,4,-1,6,8,-1,-1,-1,-1],"split_conditions":[6.089235E-1,6.269467E-1,-7.5958274E-2,5.8652997E-1,6.664684E-1,2.0583926E-2,-8.24381E-2,6.8279326E-2,-6.8906657E-3],"split_indices":[13,28,0,15,18,0,0,0,0],"split_type":[0,0,0,0,0,0,0,0,0],"sum_hessian":[2.8970434E1,2.6542183E1,2.4282513E0,7.109229E0,1.9432955E1,3.110972E0,3.9982572E0,9.229534E0,1.020342E1],"tree_param":{"num_deleted":"0","num_feature":"34","num_nodes":"9","size_leaf_vector":"1"}},{"base_weights":[7.0860144E-3,-5.8228916E-1,1.3075219E-1,-8.2977094E-2,1.895164E-2,2.4687454E-1,-7.40177E-2,6.965469E-2,-3.0215455E-3],"categories":[],"categories_nodes":[],"categories_segments":[],"categories_sizes":[],"default_left":[0,0,0,0,0,0,0,0,0],"id":37,"left_children":[1,3,5,-1,-1,7,-1,-1,-1],"loss_changes":[2.2203019E0,1.1668284E0,2.7245064E0,0E0,0E0,2.8775945E0,0E0,0E0,0E0],"parents":[2147483647,0,0,1,1,2,2,5,5],"right_children":[2,4,6,-1,-1,8,-1,-1,-1],"split_conditions":[5.8857274E-1,6.996432E-1,6.6682905E-1,-8.2977094E-2,1.895164E-2,6.010141E-1,-7.40177E-2,6.965469E-2,-3.0215455E-3],"split_indices":[17,32,23,0,0,19,0,0,0],"split_type":[0,0,0,0,0,0,0,0,0],"sum_hessian":[2.841817E1,4.2855067E0,2.4132664E1,3.1881225E0,1.0973846E0,2.1925802E1,2.2068622E0,7.7824116E0,1.414339E1],"tree_param":{"num_deleted":"0","num_feature":"34","num_nodes":"9","size_leaf_vector":"1"}},{"base_weights":[3.576071E-3,-7.923562E-2,8.611421E-2,-2.495331E-1,4.591082E-1,3.9796997E-3,-6.6439204E-2,8.266056E-2,-6.5208316E-2],"categories":[],"categories_nodes":[],"categories_segments":[],"categories_sizes":[],"default_left":[0,0,0,0,0,0,0,0,0],"id":38,"left_children":[1,3,-1,5,7,-1,-1,-1,-1],"loss_changes":[2.1286316E0,2.62415E0,0E0,2.6003036E0,3.3691406E0,0E0,0E0,0E0,0E0],"parents":[2147483647,0,0,1,1,3,3,4,4],"right_children":[2,4,-1,6,8,-1,-1,-1,-1],"split_conditions":[6.791139E-1,7.008174E-1,8.611421E-2,6.651168E-1,5.852614E-1,3.9796997E-3,-6.6439204E-2,8.266056E-2,-6.5208316E-2],"split_indices":[0,32,0,10,9,0,0,0,0],"split_type":[0,0,0,0,0,0,0,0,0],"sum_hessian":[2.8012957E1,2.6373755E1,1.6392031E0,2.0443289E1,5.930466E0,1.2576371E1,7.8669176E0,4.6490297E0,1.2814361E0],"tree_param":{"num_deleted":"0","num_feature":"34","num_nodes":"9","size_leaf_vector":"1"}},{"base_weights":[4.5167306E-3,-5.625077E-1,1.2148203E-1,1.5949175E-2,-7.9875104E-2,2.2638597E-1,-7.091957E-2,-2.0761164E-2,4.9708292E-2],"categories":[],"categories_nodes":[],"categories_segments":[],"categories_sizes":[],"default_left":[0,0,0,0,0,0,0,0,0],"id":39,"left_children":[1,3,5,-1,-1,7,-1,-1,-1],"loss_changes":[1.9563419E0,9.880147E-1,2.2886817E0,0E0,0E0,2.739644E0,0E0,0E0,0E0],"parents":[2147483647,0,0,1,1,2,2,5,5],"right_children":[2,4,6,-1,-1,8,-1,-1,-1],"split_conditions":[5.8857274E-1,6.2361777E-1,6.6682905E-1,1.5949175E-2,-7.9875104E-2,6.2874264E-1,-7.091957E-2,-2.0761164E-2,4.9708292E-2],"split_indices":[17,23,23,0,0,32,0,0,0],"split_type":[0,0,0,0,0,0,0,0,0],"sum_hessian":[2.7467207E1,4.045628E0,2.342158E1,1.0774976E0,2.9681304E0,2.1441288E1,1.980291E0,8.325844E0,1.3115444E1],"tree_param":{"num_deleted":"0","num_feature":"34","num_nodes":"9","size_leaf_vector":"1"}},{"base_weights":[-7.132E-5,-7.925432E-2,7.9781055E-2,2.4577798E-1,-3.6273035E-1,4.874558E-2,-7.254385E-2,4.9567815E-2,-5.5647053E-2],"categories":[],"categories_nodes":[],"categories_segments":[],"categories_sizes":[],"default_left":[0,0,0,0,0,0,0,0,0],"id":40,"left_children":[1,3,-1,5,7,-1,-1,-1,-1],"loss_changes":[1.8324381E0,2.5202074E0,0E0,3.378595E0,2.686831E0,0E0,0E0,0E0,0E0],"parents":[2147483647,0,0,1,1,3,3,4,4],"right_children":[2,4,-1,6,8,-1,-1,-1,-1],"split_conditions":[6.791139E-1,6.029513E-1,7.9781055E-2,6.734723E-1,7.2317386E-1,4.874558E-2,-7.254385E-2,4.9567815E-2,-5.5647053E-2],"split_indices":[0,19,0,18,31,0,0,0,0],"split_type":[0,0,0,0,0,0,0,0,0],"sum_hessian":[2.7003244E1,2.5384699E1,1.6185466E0,1.1887514E1,1.3497184E1,9.917691E0,1.9698235E0,2.1983666E0,1.1298818E1],"tree_param":{"num_deleted":"0","num_feature":"34","num_nodes":"9","size_leaf_vector":"1"}},{"base_weights":[1.2553447E-3,-5.2253383E-1,1.22052826E-1,3.921451E-2,-8.2355194E-2,5.965844E-1,-8.936964E-2,-4.547363E-2,9.451559E-2,-6.589443E-2,2.2627648E-2],"categories":[],"categories_nodes":[],"categories_segments":[],"categories_sizes":[],"default_left":[0,0,0,0,0,0,0,0,0,0,0],"id":41,"left_children":[1,3,5,-1,-1,7,9,-1,-1,-1,-1],"loss_changes":[1.8057473E0,1.7956619E0,2.3791375E0,0E0,0E0,3.0959847E0,3.188707E0,0E0,0E0,0E0,0E0],"parents":[2147483647,0,0,1,1,2,2,5,5,6,6],"right_children":[2,4,6,-1,-1,8,10,-1,-1,-1,-1],"split_conditions":[6.2741697E-1,5.7720155E-1,7.291336E-1,3.921451E-2,-8.2355194E-2,6.469915E-1,6.7235816E-1,-4.547363E-2,9.451559E-2,-6.589443E-2,2.2627648E-2],"split_indices":[32,15,33,0,0,26,24,0,0,0,0],"split_type":[0,0,0,0,0,0,0,0,0,0,0],"sum_hessian":[2.6531282E1,4.348796E0,2.2182487E1,1.0018444E0,3.3469515E0,6.2755136E0,1.5906973E1,1.4867576E0,4.7887564E0,5.2841916E0,1.0622782E1],"tree_param":{"num_deleted":"0","num_feature":"34","num_nodes":"11","size_leaf_vector":"1"}},{"base_weights":[-7.4169494E-4,-5.3884465E-1,1.1017091E-1,1.759283E-2,-7.7997245E-2,2.8054863E-1,-4.0249956E-1,-3.0168353E-2,5.5220492E-2,-5.847917E-2,1.5240884E-2],"categories":[],"categories_nodes":[],"categories_segments":[],"categories_sizes":[],"default_left":[0,0,0,0,0,0,0,0,0,0,0],"id":42,"left_children":[1,3,5,-1,-1,7,9,-1,-1,-1,-1],"loss_changes":[1.6640221E0,9.5838845E-1,2.132582E0,0E0,0E0,3.0047183E0,7.140907E-1,0E0,0E0,0E0,0E0],"parents":[2147483647,0,0,1,1,2,2,5,5,6,6],"right_children":[2,4,6,-1,-1,8,10,-1,-1,-1,-1],"split_conditions":[5.8857274E-1,6.2361777E-1,6.313255E-1,1.759283E-2,-7.7997245E-2,6.269467E-1,5.933094E-1,-3.0168353E-2,5.5220492E-2,-5.847917E-2,1.5240884E-2],"split_indices":[17,23,17,0,0,28,9,0,0,0,0],"split_type":[0,0,0,0,0,0,0,0,0,0,0],"sum_hessian":[2.5886606E1,3.7644997E0,2.2122107E1,1.0178096E0,2.74669E0,1.694386E1,5.178247E0,5.3553586E0,1.15885E1,3.8572536E0,1.3209935E0],"tree_param":{"num_deleted":"0","num_feature":"34","num_nodes":"11","size_leaf_vector":"1"}},{"base_weights":[-4.0751705E-3,-9.6040875E-2,6.450356E-2,9.108816E-2,-5.648654E-1,-3.465725E-2,3.3002503E-2,-9.343105E-2,7.162143E-2],"categories":[],"categories_nodes":[],"categories_segments":[],"categories_sizes":[],"default_left":[0,0,0,0,0,0,0,0,0],"id":43,"left_children":[1,3,-1,5,7,-1,-1,-1,-1],"loss_changes":[1.641784E0,2.161454E0,0E0,2.0020132E0,3.9822109E0,0E0,0E0,0E0,0E0],"parents":[2147483647,0,0,1,1,3,3,4,4],"right_children":[2,4,-1,6,8,-1,-1,-1,-1],"split_conditions":[7.4778354E-1,6.9854087E-1,6.450356E-2,6.269467E-1,5.934129E-1,-3.465725E-2,3.3002503E-2,-9.343105E-2,7.162143E-2],"split_indices":[16,29,0,28,9,0,0,0,0],"split_type":[0,0,0,0,0,0,0,0,0],"sum_hessian":[2.5464691E1,2.3050894E1,2.4137974E0,1.7050842E1,6.0000515E0,5.862332E0,1.1188511E1,4.867127E0,1.1329247E0],"tree_param":{"num_deleted":"0","num_feature":"34","num_nodes":"9","size_leaf_vector":"1"}},{"base_weights":[-2.7324161E-3,-5.2273095E-1,1.0392418E-1,-7.711483E-2,1.718063E-2,1.977329E-1,-6.642578E-2,7.2570495E-2,2.8468657E-4],"categories":[],"categories_nodes":[],"categories_segments":[],"categories_sizes":[],"default_left":[0,0,0,0,0,0,0,0,0],"id":44,"left_children":[1,3,5,-1,-1,7,-1,-1,-1],"loss_changes":[1.4935514E0,9.231378E-1,1.7432014E0,0E0,0E0,2.128256E0,0E0,0E0,0E0],"parents":[2147483647,0,0,1,1,2,2,5,5],"right_children":[2,4,6,-1,-1,8,-1,-1,-1],"split_conditions":[5.8857274E-1,6.996432E-1,6.6682905E-1,-7.711483E-2,1.718063E-2,5.547819E-1,-6.642578E-2,7.2570495E-2,2.8468657E-4],"split_indices":[17,32,23,0,0,19,0,0,0],"split_type":[0,0,0,0,0,0,0,0,0],"sum_hessian":[2.4950123E1,3.5825458E0,2.1367577E1,2.557494E0,1.025052E0,1.9703968E1,1.6636094E0,4.577951E0,1.5126017E1],"tree_param":{"num_deleted":"0","num_feature":"34","num_nodes":"9","size_leaf_vector":"1"}},{"base_weights":[-4.811839E-3,-8.070123E-2,7.1388595E-2,-2.2954838E-1,4.1335538E-1,5.204618E-3,-6.3264124E-2,7.718711E-2,-5.8103826E-2],"categories":[],"categories_nodes":[],"categories_segments":[],"categories_sizes":[],"default_left":[0,0,0,0,0,0,0,0,0],"id":45,"left_children":[1,3,-1,5,7,-1,-1,-1,-1],"loss_changes":[1.4533463E0,1.8631039E0,0E0,2.2032952E0,2.560408E0,0E0,0E0,0E0,0E0],"parents":[2147483647,0,0,1,1,3,3,4,4],"right_children":[2,4,-1,6,8,-1,-1,-1,-1],"split_conditions":[6.791139E-1,7.008174E-1,7.1388595E-2,6.651168E-1,7.3717344E-1,5.204618E-3,-6.3264124E-2,7.718711E-2,-5.8103826E-2],"split_indices":[0,32,0,10,10,0,0,0,0],"split_type":[0,0,0,0,0,0,0,0,0],"sum_hessian":[2.4590307E1,2.3044666E1,1.5456417E0,1.8120718E1,4.9239473E0,1.1180837E1,6.939881E0,3.7835975E0,1.1403501E0],"tree_param":{"num_deleted":"0","num_feature":"34","num_nodes":"9","size_leaf_vector":"1"}},{"base_weights":[-3.2820124E-3,-4.7726625E-1,1.051726E-1,3.6314335E-2,-7.96513E-2,5.4830766E-1,-1.0032267E-1,-4.3908205E-2,8.794561E-2,-6.2323004E-2,2.0001309E-2],"categories":[],"categories_nodes":[],"categories_segments":[],"categories_sizes":[],"default_left":[0,0,0,0,0,0,0,0,0,0,0],"id":46,"left_children":[1,3,5,-1,-1,7,9,-1,-1,-1,-1],"loss_changes":[1.3417773E0,1.5929315E0,1.9915488E0,0E0,0E0,2.6396759E0,2.5391164E0,0E0,0E0,0E0,0E0],"parents":[2147483647,0,0,1,1,2,2,5,5,6,6],"right_children":[2,4,6,-1,-1,8,10,-1,-1,-1,-1],"split_conditions":[6.2741697E-1,5.494293E-1,7.291336E-1,3.6314335E-2,-7.96513E-2,6.469915E-1,6.7235816E-1,-4.3908205E-2,8.794561E-2,-6.2323004E-2,2.0001309E-2],"split_indices":[32,10,33,0,0,26,24,0,0,0,0],"split_type":[0,0,0,0,0,0,0,0,0,0,0],"sum_hessian":[2.412523E1,3.8590848E0,2.0266146E1,1.024531E0,2.8345537E0,5.8920846E0,1.4374061E1,1.3979279E0,4.494157E0,4.851726E0,9.522335E0],"tree_param":{"num_deleted":"0","num_feature":"34","num_nodes":"11","size_leaf_vector":"1"}},{"base_weights":[-5.12946E-3,-5.023112E-1,9.670836E-2,-7.4403726E-2,1.4345278E-2,4.3219596E-1,-1.1368608E-1,-6.7888773E-3,1.17640175E-1,3.960788E-2,-3.9437722E-2],"categories":[],"categories_nodes":[],"categories_segments":[],"categories_sizes":[],"default_left":[0,0,0,0,0,0,0,0,0,0,0],"id":47,"left_children":[1,3,5,-1,-1,7,9,-1,-1,-1,-1],"loss_changes":[1.2920439E0,7.836759E-1,1.5471045E0,0E0,0E0,3.2015104E0,2.1357365E0,0E0,0E0,0E0,0E0],"parents":[2147483647,0,0,1,1,2,2,5,5,6,6],"right_children":[2,4,6,-1,-1,8,10,-1,-1,-1,-1],"split_conditions":[5.8857274E-1,6.996432E-1,6.010141E-1,-7.4403726E-2,1.4345278E-2,5.790281E-1,7.291336E-1,-6.7888773E-3,1.17640175E-1,3.960788E-2,-3.9437722E-2],"split_indices":[17,32,19,0,0,15,33,0,0,0,0],"split_type":[0,0,0,0,0,0,0,0,0,0,0],"sum_hessian":[2.3558943E1,3.3366487E0,2.0222294E1,2.317113E0,1.0195359E0,7.3877807E0,1.2834514E1,4.9621415E0,2.425639E0,4.4115634E0,8.422951E0],"tree_param":{"num_deleted":"0","num_feature":"34","num_nodes":"11","size_leaf_vector":"1"}},{"base_weights":[-2.7145322E-3,-8.663805E-2,5.922627E-2,2.6052034E-1,-2.949669E-1,-5.8297057E-2,6.127813E-2,-4.314223E-2,6.999372E-2],"categories":[],"categories_nodes":[],"categories_segments":[],"categories_sizes":[],"default_left":[0,0,0,0,0,0,0,0,0],"id":48,"left_children":[1,3,-1,5,7,-1,-1,-1,-1],"loss_changes":[1.2580245E0,1.6716986E0,0E0,2.9723437E0,2.23662E0,0E0,0E0,0E0,0E0],"parents":[2147483647,0,0,1,1,3,3,4,4],"right_children":[2,4,-1,6,8,-1,-1,-1,-1],"split_conditions":[7.4778354E-1,6.798472E-1,5.922627E-2,6.4705426E-1,5.934129E-1,-5.8297057E-2,6.127813E-2,-4.314223E-2,6.999372E-2],"split_indices":[16,29,0,26,9,0,0,0,0],"split_type":[0,0,0,0,0,0,0,0,0],"sum_hessian":[2.3166826E1,2.1051786E1,2.1150403E0,7.8012643E0,1.3250521E1,2.1052623E0,5.6960025E0,1.2150408E1,1.100113E0],"tree_param":{"num_deleted":"0","num_feature":"34","num_nodes":"9","size_leaf_vector":"1"}},{"base_weights":[1.1024759E-3,-4.85203E-1,9.958204E-2,1.1477552E-2,-7.181627E-2,1.9012167E-1,-6.351076E-2,6.851069E-2,5.573156E-4],"categories":[],"categories_nodes":[],"categories_segments":[],"categories_sizes":[],"default_left":[0,0,0,0,0,0,0,0,0],"id":49,"left_children":[1,3,5,-1,-1,7,-1,-1,-1],"loss_changes":[1.1801995E0,6.62533E-1,1.4833174E0,0E0,0E0,1.732382E0,0E0,0E0,0E0],"parents":[2147483647,0,0,1,1,2,2,5,5],"right_children":[2,4,6,-1,-1,8,-1,-1,-1],"split_conditions":[5.8857274E-1,6.6351503E-1,6.6682905E-1,1.1477552E-2,-7.181627E-2,5.547819E-1,-6.351076E-2,6.851069E-2,5.573156E-4],"split_indices":[17,26,23,0,0,19,0,0,0],"split_type":[0,0,0,0,0,0,0,0,0],"sum_hessian":[2.2634468E1,3.1504042E0,1.9484064E1,1.0230068E0,2.1273973E0,1.8006279E1,1.4777858E0,4.153545E0,1.3852734E1],"tree_param":{"num_deleted":"0","num_feature":"34","num_nodes":"9","size_leaf_vector":"1"}}]},"name":"gbtree"},"learner_model_param":{"base_score":"2.1682243E-1","boost_from_average":"1","num_class":"0","num_feature":"34","num_target":"1"},"objective":{"name":"binary:logistic","reg_loss_param":{"scale_pos_weight":"1"}}},"version":[3,0,0]}